<?xml version="1.0"?>
<opencv_storage>
<cascade>
  <stageType>BOOST</stageType>
  <featureType>HAAR</featureType>
  <height>60</height>
  <width>30</width>
  <stageParams>
    <boostType>GAB</boostType>
    <minHitRate>9.9900001287460327e-01</minHitRate>
    <maxFalseAlarm>5.0000000000000000e-01</maxFalseAlarm>
    <weightTrimRate>9.4999999999999996e-01</weightTrimRate>
    <maxDepth>1</maxDepth>
    <maxWeakCount>100</maxWeakCount></stageParams>
  <featureParams>
    <maxCatCount>0</maxCatCount>
    <featSize>1</featSize>
    <mode>ALL</mode></featureParams>
  <stageNum>11</stageNum>
  <stages>
    <!-- stage 0 -->
    <_>
      <maxWeakCount>2</maxWeakCount>
      <stageThreshold>-3.7188485264778137e-02</stageThreshold>
      <weakClassifiers>
        <_>
          <internalNodes>
            0 -1 49 -8.0980405211448669e-02</internalNodes>
          <leafValues>
            9.8617863655090332e-01 -9.8998248577117920e-01</leafValues></_>
        <_>
          <internalNodes>
            0 -1 42 -3.8155570626258850e-02</internalNodes>
          <leafValues>
            9.5279395580291748e-01 -9.8122644424438477e-01</leafValues></_></weakClassifiers></_>
    <!-- stage 1 -->
    <_>
      <maxWeakCount>3</maxWeakCount>
      <stageThreshold>-1.0728250741958618e+00</stageThreshold>
      <weakClassifiers>
        <_>
          <internalNodes>
            0 -1 28 -7.9686284065246582e-02</internalNodes>
          <leafValues>
            8.7114703655242920e-01 -9.0005075931549072e-01</leafValues></_>
        <_>
          <internalNodes>
            0 -1 14 6.0240291059017181e-02</internalNodes>
          <leafValues>
            -9.3801969289779663e-01 7.1810138225555420e-01</leafValues></_>
        <_>
          <internalNodes>
            0 -1 5 -2.9251366853713989e-01</internalNodes>
          <leafValues>
            7.6601582765579224e-01 -8.9087575674057007e-01</leafValues></_></weakClassifiers></_>
    <!-- stage 2 -->
    <_>
      <maxWeakCount>3</maxWeakCount>
      <stageThreshold>-1.0483405590057373e+00</stageThreshold>
      <weakClassifiers>
        <_>
          <internalNodes>
            0 -1 37 1.6904946416616440e-02</internalNodes>
          <leafValues>
            -8.1740009784698486e-01 7.9371517896652222e-01</leafValues></_>
        <_>
          <internalNodes>
            0 -1 23 -1.6478392481803894e-01</internalNodes>
          <leafValues>
            6.8032574653625488e-01 -8.9024263620376587e-01</leafValues></_>
        <_>
          <internalNodes>
            0 -1 0 9.0462490916252136e-03</internalNodes>
          <leafValues>
            -8.5472440719604492e-01 6.5930223464965820e-01</leafValues></_></weakClassifiers></_>
    <!-- stage 3 -->
    <_>
      <maxWeakCount>5</maxWeakCount>
      <stageThreshold>-1.5988886356353760e+00</stageThreshold>
      <weakClassifiers>
        <_>
          <internalNodes>
            0 -1 2 -4.3291747570037842e-02</internalNodes>
          <leafValues>
            6.9035762548446655e-01 -9.0465247631072998e-01</leafValues></_>
        <_>
          <internalNodes>
            0 -1 29 1.1632738169282675e-03</internalNodes>
          <leafValues>
            -8.4997320175170898e-01 6.2876683473587036e-01</leafValues></_>
        <_>
          <internalNodes>
            0 -1 33 -4.8049636185169220e-02</internalNodes>
          <leafValues>
            5.9103292226791382e-01 -7.9893088340759277e-01</leafValues></_>
        <_>
          <internalNodes>
            0 -1 41 4.1043125092983246e-02</internalNodes>
          <leafValues>
            -9.5360183715820312e-01 4.6448996663093567e-01</leafValues></_>
        <_>
          <internalNodes>
            0 -1 26 2.4454426020383835e-02</internalNodes>
          <leafValues>
            -8.6986488103866577e-01 4.9017798900604248e-01</leafValues></_></weakClassifiers></_>
    <!-- stage 4 -->
    <_>
      <maxWeakCount>5</maxWeakCount>
      <stageThreshold>-1.4068733453750610e+00</stageThreshold>
      <weakClassifiers>
        <_>
          <internalNodes>
            0 -1 53 -5.1805537194013596e-02</internalNodes>
          <leafValues>
            6.9783467054367065e-01 -7.6538062095642090e-01</leafValues></_>
        <_>
          <internalNodes>
            0 -1 16 9.4140775501728058e-02</internalNodes>
          <leafValues>
            -8.4393244981765747e-01 6.3159906864166260e-01</leafValues></_>
        <_>
          <internalNodes>
            0 -1 43 -1.3610957190394402e-02</internalNodes>
          <leafValues>
            6.4511501789093018e-01 -7.8908473253250122e-01</leafValues></_>
        <_>
          <internalNodes>
            0 -1 17 -4.7478890046477318e-03</internalNodes>
          <leafValues>
            4.2043754458427429e-01 -8.9087021350860596e-01</leafValues></_>
        <_>
          <internalNodes>
            0 -1 30 2.8927903622388840e-03</internalNodes>
          <leafValues>
            -7.9939204454421997e-01 4.4819489121437073e-01</leafValues></_></weakClassifiers></_>
    <!-- stage 5 -->
    <_>
      <maxWeakCount>5</maxWeakCount>
      <stageThreshold>-1.3785328865051270e+00</stageThreshold>
      <weakClassifiers>
        <_>
          <internalNodes>
            0 -1 48 -3.7552393972873688e-02</internalNodes>
          <leafValues>
            5.9847295284271240e-01 -8.0214679241180420e-01</leafValues></_>
        <_>
          <internalNodes>
            0 -1 40 2.0546751096844673e-02</internalNodes>
          <leafValues>
            -6.9909018278121948e-01 6.1915004253387451e-01</leafValues></_>
        <_>
          <internalNodes>
            0 -1 27 6.6341206431388855e-02</internalNodes>
          <leafValues>
            -6.5233367681503296e-01 6.3580697774887085e-01</leafValues></_>
        <_>
          <internalNodes>
            0 -1 31 2.9378723353147507e-02</internalNodes>
          <leafValues>
            -9.1643905639648438e-01 4.9725800752639771e-01</leafValues></_>
        <_>
          <internalNodes>
            0 -1 1 -3.4070990979671478e-02</internalNodes>
          <leafValues>
            4.0333616733551025e-01 -9.0839350223541260e-01</leafValues></_></weakClassifiers></_>
    <!-- stage 6 -->
    <_>
      <maxWeakCount>6</maxWeakCount>
      <stageThreshold>-2.0491712093353271e+00</stageThreshold>
      <weakClassifiers>
        <_>
          <internalNodes>
            0 -1 19 -5.7303819805383682e-02</internalNodes>
          <leafValues>
            7.6651585102081299e-01 -5.7600873708724976e-01</leafValues></_>
        <_>
          <internalNodes>
            0 -1 11 2.8542426880449057e-03</internalNodes>
          <leafValues>
            -7.6420730352401733e-01 5.9837538003921509e-01</leafValues></_>
        <_>
          <internalNodes>
            0 -1 45 -1.9268304109573364e-02</internalNodes>
          <leafValues>
            4.8743903636932373e-01 -8.4101897478103638e-01</leafValues></_>
        <_>
          <internalNodes>
            0 -1 39 -4.8464886844158173e-02</internalNodes>
          <leafValues>
            5.2831399440765381e-01 -8.6156535148620605e-01</leafValues></_>
        <_>
          <internalNodes>
            0 -1 46 1.2279848568141460e-02</internalNodes>
          <leafValues>
            -7.0308262109756470e-01 4.3711313605308533e-01</leafValues></_>
        <_>
          <internalNodes>
            0 -1 10 -1.7051000148057938e-02</internalNodes>
          <leafValues>
            3.5418716073036194e-01 -8.6905217170715332e-01</leafValues></_></weakClassifiers></_>
    <!-- stage 7 -->
    <_>
      <maxWeakCount>7</maxWeakCount>
      <stageThreshold>-1.8760157823562622e+00</stageThreshold>
      <weakClassifiers>
        <_>
          <internalNodes>
            0 -1 4 -4.2716020345687866e-01</internalNodes>
          <leafValues>
            6.9348472356796265e-01 -7.5623703002929688e-01</leafValues></_>
        <_>
          <internalNodes>
            0 -1 52 1.3584780972450972e-03</internalNodes>
          <leafValues>
            -6.5454739332199097e-01 5.9791719913482666e-01</leafValues></_>
        <_>
          <internalNodes>
            0 -1 36 -2.5166537612676620e-02</internalNodes>
          <leafValues>
            4.3704515695571899e-01 -8.5146540403366089e-01</leafValues></_>
        <_>
          <internalNodes>
            0 -1 15 1.5321518480777740e-01</internalNodes>
          <leafValues>
            -7.5704878568649292e-01 5.4303920269012451e-01</leafValues></_>
        <_>
          <internalNodes>
            0 -1 3 -2.7946129441261292e-02</internalNodes>
          <leafValues>
            4.3111601471900940e-01 -7.1355241537094116e-01</leafValues></_>
        <_>
          <internalNodes>
            0 -1 51 5.0236387178301811e-03</internalNodes>
          <leafValues>
            -8.8995283842086792e-01 3.4631243348121643e-01</leafValues></_>
        <_>
          <internalNodes>
            0 -1 6 3.3824262209236622e-04</internalNodes>
          <leafValues>
            3.0203169584274292e-01 -9.6466320753097534e-01</leafValues></_></weakClassifiers></_>
    <!-- stage 8 -->
    <_>
      <maxWeakCount>9</maxWeakCount>
      <stageThreshold>-1.8082444667816162e+00</stageThreshold>
      <weakClassifiers>
        <_>
          <internalNodes>
            0 -1 35 1.2234678864479065e-01</internalNodes>
          <leafValues>
            -8.4936422109603882e-01 5.1831161975860596e-01</leafValues></_>
        <_>
          <internalNodes>
            0 -1 20 -3.8473490625619888e-02</internalNodes>
          <leafValues>
            5.0601893663406372e-01 -8.0966562032699585e-01</leafValues></_>
        <_>
          <internalNodes>
            0 -1 50 -4.0749120526015759e-03</internalNodes>
          <leafValues>
            5.4230177402496338e-01 -6.3971114158630371e-01</leafValues></_>
        <_>
          <internalNodes>
            0 -1 54 1.2186057865619659e-03</internalNodes>
          <leafValues>
            -7.2570079565048218e-01 5.0564306974411011e-01</leafValues></_>
        <_>
          <internalNodes>
            0 -1 18 2.3984161019325256e-01</internalNodes>
          <leafValues>
            -5.2559387683868408e-01 7.1634405851364136e-01</leafValues></_>
        <_>
          <internalNodes>
            0 -1 44 2.7931656222790480e-03</internalNodes>
          <leafValues>
            -8.0704236030578613e-01 3.8150313496589661e-01</leafValues></_>
        <_>
          <internalNodes>
            0 -1 22 -6.1287609860301018e-03</internalNodes>
          <leafValues>
            5.9422224760055542e-01 -5.9744936227798462e-01</leafValues></_>
        <_>
          <internalNodes>
            0 -1 7 4.3291702240821905e-06</internalNodes>
          <leafValues>
            -9.4747465848922729e-01 2.9951429367065430e-01</leafValues></_>
        <_>
          <internalNodes>
            0 -1 47 2.3536798544228077e-03</internalNodes>
          <leafValues>
            -7.1981763839721680e-01 4.1628509759902954e-01</leafValues></_></weakClassifiers></_>
    <!-- stage 9 -->
    <_>
      <maxWeakCount>6</maxWeakCount>
      <stageThreshold>-1.0809812545776367e+00</stageThreshold>
      <weakClassifiers>
        <_>
          <internalNodes>
            0 -1 56 -1.8930403515696526e-02</internalNodes>
          <leafValues>
            5.7198983430862427e-01 -7.2068291902542114e-01</leafValues></_>
        <_>
          <internalNodes>
            0 -1 32 5.4867565631866455e-02</internalNodes>
          <leafValues>
            -6.1581963300704956e-01 6.3105279207229614e-01</leafValues></_>
        <_>
          <internalNodes>
            0 -1 21 -1.0765356943011284e-02</internalNodes>
          <leafValues>
            5.0728780031204224e-01 -7.1503335237503052e-01</leafValues></_>
        <_>
          <internalNodes>
            0 -1 13 1.7034966498613358e-02</internalNodes>
          <leafValues>
            -8.1007742881774902e-01 5.5747604370117188e-01</leafValues></_>
        <_>
          <internalNodes>
            0 -1 38 -7.1743398439139128e-04</internalNodes>
          <leafValues>
            -9.1555875539779663e-01 2.8460657596588135e-01</leafValues></_>
        <_>
          <internalNodes>
            0 -1 9 3.9933247535373084e-06</internalNodes>
          <leafValues>
            -9.1080164909362793e-01 2.7370426058769226e-01</leafValues></_></weakClassifiers></_>
    <!-- stage 10 -->
    <_>
      <maxWeakCount>6</maxWeakCount>
      <stageThreshold>-1.1527385711669922e+00</stageThreshold>
      <weakClassifiers>
        <_>
          <internalNodes>
            0 -1 24 -1.1476939916610718e-01</internalNodes>
          <leafValues>
            6.7756891250610352e-01 -6.7986059188842773e-01</leafValues></_>
        <_>
          <internalNodes>
            0 -1 25 -3.7280046381056309e-03</internalNodes>
          <leafValues>
            5.1156890392303467e-01 -7.9022961854934692e-01</leafValues></_>
        <_>
          <internalNodes>
            0 -1 34 -1.1155215324833989e-03</internalNodes>
          <leafValues>
            4.0155154466629028e-01 -8.8015592098236084e-01</leafValues></_>
        <_>
          <internalNodes>
            0 -1 12 -8.8922085706144571e-04</internalNodes>
          <leafValues>
            3.9721065759658813e-01 -8.9635872840881348e-01</leafValues></_>
        <_>
          <internalNodes>
            0 -1 55 2.1968414075672626e-03</internalNodes>
          <leafValues>
            -8.4748578071594238e-01 4.2508023977279663e-01</leafValues></_>
        <_>
          <internalNodes>
            0 -1 8 -1.3798321015201509e-04</internalNodes>
          <leafValues>
            -9.2886191606521606e-01 3.8707858324050903e-01</leafValues></_></weakClassifiers></_></stages>
  <features>
    <_>
      <rects>
        <_>
          0 0 30 6 -1.</_>
        <_>
          0 0 15 3 2.</_>
        <_>
          15 3 15 3 2.</_></rects>
      <tilted>0</tilted></_>
    <_>
      <rects>
        <_>
          0 3 16 18 -1.</_>
        <_>
          4 3 8 18 2.</_></rects>
      <tilted>0</tilted></_>
    <_>
      <rects>
        <_>
          0 3 8 22 -1.</_>
        <_>
          4 3 4 22 2.</_></rects>
      <tilted>0</tilted></_>
    <_>
      <rects>
        <_>
          0 7 6 22 -1.</_>
        <_>
          3 7 3 22 2.</_></rects>
      <tilted>0</tilted></_>
    <_>
      <rects>
        <_>
          0 9 30 32 -1.</_>
        <_>
          10 9 10 32 3.</_></rects>
      <tilted>0</tilted></_>
    <_>
      <rects>
        <_>
          0 12 30 23 -1.</_>
        <_>
          10 12 10 23 3.</_></rects>
      <tilted>0</tilted></_>
    <_>
      <rects>
        <_>
          0 31 1 12 -1.</_>
        <_>
          0 35 1 4 3.</_></rects>
      <tilted>0</tilted></_>
    <_>
      <rects>
        <_>
          0 43 1 14 -1.</_>
        <_>
          0 50 1 7 2.</_></rects>
      <tilted>0</tilted></_>
    <_>
      <rects>
        <_>
          0 51 1 9 -1.</_>
        <_>
          0 54 1 3 3.</_></rects>
      <tilted>0</tilted></_>
    <_>
      <rects>
        <_>
          0 54 1 6 -1.</_>
        <_>
          0 57 1 3 2.</_></rects>
      <tilted>0</tilted></_>
    <_>
      <rects>
        <_>
          1 0 12 28 -1.</_>
        <_>
          1 7 12 14 2.</_></rects>
      <tilted>0</tilted></_>
    <_>
      <rects>
        <_>
          2 0 18 4 -1.</_>
        <_>
          2 0 9 2 2.</_>
        <_>
          11 2 9 2 2.</_></rects>
      <tilted>0</tilted></_>
    <_>
      <rects>
        <_>
          2 1 2 10 -1.</_>
        <_>
          3 1 1 10 2.</_></rects>
      <tilted>0</tilted></_>
    <_>
      <rects>
        <_>
          4 0 26 10 -1.</_>
        <_>
          4 0 13 5 2.</_>
        <_>
          17 5 13 5 2.</_></rects>
      <tilted>0</tilted></_>
    <_>
      <rects>
        <_>
          5 6 3 54 -1.</_>
        <_>
          5 33 3 27 2.</_></rects>
      <tilted>0</tilted></_>
    <_>
      <rects>
        <_>
          5 10 7 50 -1.</_>
        <_>
          5 35 7 25 2.</_></rects>
      <tilted>0</tilted></_>
    <_>
      <rects>
        <_>
          6 2 4 58 -1.</_>
        <_>
          6 31 4 29 2.</_></rects>
      <tilted>0</tilted></_>
    <_>
      <rects>
        <_>
          6 13 2 6 -1.</_>
        <_>
          6 13 2 3 2.</_></rects>
      <tilted>1</tilted></_>
    <_>
      <rects>
        <_>
          6 18 12 42 -1.</_>
        <_>
          6 39 12 21 2.</_></rects>
      <tilted>0</tilted></_>
    <_>
      <rects>
        <_>
          6 30 24 6 -1.</_>
        <_>
          6 30 24 3 2.</_></rects>
      <tilted>1</tilted></_>
    <_>
      <rects>
        <_>
          7 3 10 44 -1.</_>
        <_>
          7 3 5 22 2.</_>
        <_>
          12 25 5 22 2.</_></rects>
      <tilted>0</tilted></_>
    <_>
      <rects>
        <_>
          8 10 11 8 -1.</_>
        <_>
          6 12 11 4 2.</_></rects>
      <tilted>1</tilted></_>
    <_>
      <rects>
        <_>
          8 15 1 8 -1.</_>
        <_>
          8 15 1 4 2.</_></rects>
      <tilted>1</tilted></_>
    <_>
      <rects>
        <_>
          8 16 22 44 -1.</_>
        <_>
          8 16 11 22 2.</_>
        <_>
          19 38 11 22 2.</_></rects>
      <tilted>0</tilted></_>
    <_>
      <rects>
        <_>
          8 20 20 29 -1.</_>
        <_>
          13 20 10 29 2.</_></rects>
      <tilted>0</tilted></_>
    <_>
      <rects>
        <_>
          9 6 5 20 -1.</_>
        <_>
          9 11 5 10 2.</_></rects>
      <tilted>0</tilted></_>
    <_>
      <rects>
        <_>
          10 0 20 14 -1.</_>
        <_>
          10 0 10 7 2.</_>
        <_>
          20 7 10 7 2.</_></rects>
      <tilted>0</tilted></_>
    <_>
      <rects>
        <_>
          10 14 3 46 -1.</_>
        <_>
          10 37 3 23 2.</_></rects>
      <tilted>0</tilted></_>
    <_>
      <rects>
        <_>
          10 30 20 10 -1.</_>
        <_>
          10 30 20 5 2.</_></rects>
      <tilted>1</tilted></_>
    <_>
      <rects>
        <_>
          11 0 19 2 -1.</_>
        <_>
          11 1 19 1 2.</_></rects>
      <tilted>0</tilted></_>
    <_>
      <rects>
        <_>
          11 0 19 4 -1.</_>
        <_>
          11 2 19 2 2.</_></rects>
      <tilted>0</tilted></_>
    <_>
      <rects>
        <_>
          12 0 18 18 -1.</_>
        <_>
          12 0 9 9 2.</_>
        <_>
          21 9 9 9 2.</_></rects>
      <tilted>0</tilted></_>
    <_>
      <rects>
        <_>
          13 40 10 20 -1.</_>
        <_>
          13 50 10 10 2.</_></rects>
      <tilted>0</tilted></_>
    <_>
      <rects>
        <_>
          15 30 6 12 -1.</_>
        <_>
          15 30 6 6 2.</_></rects>
      <tilted>1</tilted></_>
    <_>
      <rects>
        <_>
          16 7 2 52 -1.</_>
        <_>
          16 7 1 26 2.</_>
        <_>
          17 33 1 26 2.</_></rects>
      <tilted>0</tilted></_>
    <_>
      <rects>
        <_>
          17 2 12 46 -1.</_>
        <_>
          23 2 6 46 2.</_></rects>
      <tilted>0</tilted></_>
    <_>
      <rects>
        <_>
          17 34 12 26 -1.</_>
        <_>
          17 34 6 13 2.</_>
        <_>
          23 47 6 13 2.</_></rects>
      <tilted>0</tilted></_>
    <_>
      <rects>
        <_>
          17 46 7 14 -1.</_>
        <_>
          17 53 7 7 2.</_></rects>
      <tilted>0</tilted></_>
    <_>
      <rects>
        <_>
          18 24 3 16 -1.</_>
        <_>
          19 24 1 16 3.</_></rects>
      <tilted>0</tilted></_>
    <_>
      <rects>
        <_>
          18 24 3 18 -1.</_>
        <_>
          18 24 3 9 2.</_></rects>
      <tilted>1</tilted></_>
    <_>
      <rects>
        <_>
          18 46 7 14 -1.</_>
        <_>
          18 53 7 7 2.</_></rects>
      <tilted>0</tilted></_>
    <_>
      <rects>
        <_>
          19 2 8 42 -1.</_>
        <_>
          23 2 4 42 2.</_></rects>
      <tilted>0</tilted></_>
    <_>
      <rects>
        <_>
          20 5 4 20 -1.</_>
        <_>
          15 10 4 10 2.</_></rects>
      <tilted>1</tilted></_>
    <_>
      <rects>
        <_>
          20 44 10 16 -1.</_>
        <_>
          20 44 5 8 2.</_>
        <_>
          25 52 5 8 2.</_></rects>
      <tilted>0</tilted></_>
    <_>
      <rects>
        <_>
          22 0 3 8 -1.</_>
        <_>
          20 2 3 4 2.</_></rects>
      <tilted>1</tilted></_>
    <_>
      <rects>
        <_>
          22 10 8 8 -1.</_>
        <_>
          22 10 4 8 2.</_></rects>
      <tilted>1</tilted></_>
    <_>
      <rects>
        <_>
          23 14 4 32 -1.</_>
        <_>
          25 14 2 32 2.</_></rects>
      <tilted>0</tilted></_>
    <_>
      <rects>
        <_>
          23 42 6 4 -1.</_>
        <_>
          26 42 3 4 2.</_></rects>
      <tilted>0</tilted></_>
    <_>
      <rects>
        <_>
          24 6 2 24 -1.</_>
        <_>
          18 12 2 12 2.</_></rects>
      <tilted>1</tilted></_>
    <_>
      <rects>
        <_>
          24 11 6 24 -1.</_>
        <_>
          18 17 6 12 2.</_></rects>
      <tilted>1</tilted></_>
    <_>
      <rects>
        <_>
          24 48 6 12 -1.</_>
        <_>
          24 48 3 6 2.</_>
        <_>
          27 54 3 6 2.</_></rects>
      <tilted>0</tilted></_>
    <_>
      <rects>
        <_>
          27 0 3 12 -1.</_>
        <_>
          24 3 3 6 2.</_></rects>
      <tilted>1</tilted></_>
    <_>
      <rects>
        <_>
          28 0 2 6 -1.</_>
        <_>
          28 3 2 3 2.</_></rects>
      <tilted>0</tilted></_>
    <_>
      <rects>
        <_>
          28 10 2 28 -1.</_>
        <_>
          21 17 2 14 2.</_></rects>
      <tilted>1</tilted></_>
    <_>
      <rects>
        <_>
          29 0 1 28 -1.</_>
        <_>
          29 7 1 14 2.</_></rects>
      <tilted>0</tilted></_>
    <_>
      <rects>
        <_>
          29 2 1 12 -1.</_>
        <_>
          26 5 1 6 2.</_></rects>
      <tilted>1</tilted></_>
    <_>
      <rects>
        <_>
          29 18 1 24 -1.</_>
        <_>
          23 24 1 12 2.</_></rects>
      <tilted>1</tilted></_></features></cascade>
</opencv_storage>
